<?xml version="1.0" encoding="UTF-8"?>
<!-- This network was created in GeNIe Academic, which can be used for academic teaching and research purposes only -->
<smile version="1.0" id="Network1" numsamples="10000" discsamples="10000">
	<nodes>
		<cpt id="Monitoring">
			<state id="Classe1" />
			<state id="Classe2" />
			<state id="Classe3" />
			<probabilities>0.3333333333333333 0.3333333333333333 0.3333333333333334</probabilities>
		</cpt>
		<cpt id="validation_quality">
			<state id="Classe1" />
			<state id="Classe2" />
			<state id="Classe3" />
			<state id="Classe4" />
			<state id="Classe5" />
			<parents>Monitoring</parents>
			<probabilities>0.3333333333333333 0.2222222222222222 0.2222222222222222 0.1111111111111111 0.1111111111111112 0.1111111111111111 0.2222222222222222 0.3333333333333333 0.2222222222222222 0.1111111111111112 0.1111111111111111 0.1111111111111111 0.2222222222222222 0.3333333333333333 0.2222222222222223</probabilities>
		</cpt>
		<cpt id="experimentation_quality">
			<state id="Classe1" />
			<state id="Classe2" />
			<state id="Classe3" />
			<state id="Classe4" />
			<state id="Classe5" />
			<parents>Monitoring</parents>
			<probabilities>0.3333333333333333 0.2222222222222222 0.2222222222222222 0.1111111111111111 0.1111111111111112 0.1111111111111111 0.2222222222222222 0.3333333333333333 0.2222222222222222 0.1111111111111112 0.1111111111111111 0.1111111111111111 0.2222222222222222 0.3333333333333333 0.2222222222222223</probabilities>
		</cpt>
		<cpt id="Planning">
			<state id="Classe1" />
			<state id="Classe2" />
			<state id="Classe3" />
			<probabilities>0.3333333333333333 0.3333333333333333 0.3333333333333334</probabilities>
		</cpt>
		<cpt id="validated_time_rate">
			<state id="Classe1" />
			<state id="Classe2" />
			<state id="Classe3" />
			<state id="Classe4" />
			<state id="Classe5" />
			<parents>Monitoring Planning</parents>
			<probabilities>0.3333333333333333 0.2222222222222222 0.2222222222222222 0.1111111111111111 0.1111111111111112 0.2222222222222222 0.3333333333333333 0.2222222222222222 0.1111111111111111 0.1111111111111112 0.125 0.25 0.25 0.25 0.125 0.2222222222222222 0.3333333333333333 0.2222222222222222 0.1111111111111111 0.1111111111111112 0.1818181818181818 0.2727272727272727 0.2727272727272727 0.1818181818181818 0.09090909090909083 0.1111111111111111 0.2222222222222222 0.3333333333333333 0.2222222222222222 0.1111111111111112 0.125 0.25 0.25 0.25 0.125 0.1111111111111111 0.2222222222222222 0.3333333333333333 0.2222222222222222 0.1111111111111112 0.09090909090909091 0.1818181818181818 0.2727272727272727 0.2727272727272727 0.1818181818181819</probabilities>
		</cpt>
		<cpt id="highest_version_mean_validated">
			<state id="Classe1" />
			<state id="Classe2" />
			<state id="Classe3" />
			<state id="Classe4" />
			<parents>Monitoring Planning</parents>
			<probabilities>0.4285714285714285 0.2857142857142857 0.1428571428571428 0.142857142857143 0.375 0.25 0.25 0.125 0.1666666666666667 0.3333333333333333 0.3333333333333333 0.1666666666666667 0.25 0.375 0.25 0.125 0.125 0.375 0.375 0.125 0.125 0.25 0.375 0.25 0.1666666666666667 0.3333333333333333 0.3333333333333333 0.1666666666666667 0.125 0.25 0.375 0.25 0.1428571428571428 0.1428571428571428 0.2857142857142857 0.4285714285714286</probabilities>
		</cpt>
		<cpt id="Ressource_Used">
			<state id="Classe1" />
			<state id="Classe2" />
			<state id="Classe3" />
			<probabilities>0.3333333333333333 0.3333333333333333 0.3333333333333334</probabilities>
		</cpt>
		<cpt id="time_consulting_help">
			<state id="Classe1" />
			<state id="Classe2" />
			<state id="Classe3" />
			<state id="Classe4" />
			<state id="Classe5" />
			<parents>Planning Ressource_Used</parents>
			<probabilities>0.2 0.2 0.2 0.2 0.2 0.2 0.2 0.2 0.2 0.2 0.2 0.2 0.2 0.2 0.2 0.2 0.2 0.2 0.2 0.2 0.2 0.2 0.2 0.2 0.2 0.2 0.2 0.2 0.2 0.2 0.2 0.2 0.2 0.2 0.2 0.2 0.2 0.2 0.2 0.2 0.2 0.2 0.2 0.2 0.2</probabilities>
		</cpt>
		<cpt id="mean_test_per_subject">
			<state id="Classe1" />
			<state id="Classe2" />
			<state id="Classe3" />
			<state id="Classe4" />
			<state id="Classe5" />
			<state id="Classe6" />
			<parents>Ressource_Used</parents>
			<probabilities>0.1666666666666667 0.1666666666666667 0.1666666666666667 0.1666666666666667 0.1666666666666667 0.1666666666666667 0.1666666666666667 0.1666666666666667 0.1666666666666667 0.1666666666666667 0.1666666666666667 0.1666666666666667 0.1666666666666667 0.1666666666666667 0.1666666666666667 0.1666666666666667 0.1666666666666667 0.1666666666666667</probabilities>
		</cpt>
		<cpt id="mean_modification_per_subject">
			<state id="Classe1" />
			<state id="Classe2" />
			<state id="Classe3" />
			<state id="Classe4" />
			<state id="Classe5" />
			<parents>Ressource_Used</parents>
			<probabilities>0.2727272727272727 0.09090909090909091 0.1818181818181818 0.1818181818181818 0.2727272727272727 0.1 0.3 0.2 0.3 0.09999999999999987 0.1111111111111111 0.2222222222222222 0.3333333333333333 0.2222222222222222 0.1111111111111112</probabilities>
		</cpt>
		<cpt id="mean_time_active">
			<state id="Classe1" />
			<state id="Classe2" />
			<state id="Classe3" />
			<state id="Classe4" />
			<state id="Classe5" />
			<state id="Classe6" />
			<parents>Ressource_Used</parents>
			<probabilities>0.1666666666666667 0.1666666666666667 0.1666666666666667 0.1666666666666667 0.1666666666666667 0.1666666666666667 0.1666666666666667 0.1666666666666667 0.1666666666666667 0.1666666666666667 0.1666666666666667 0.1666666666666667 0.1666666666666667 0.1666666666666667 0.1666666666666667 0.1666666666666667 0.1666666666666667 0.1666666666666667</probabilities>
		</cpt>
		<cpt id="SRL_Class">
			<state id="Low" />
			<state id="Medium" />
			<state id="High" />
			<parents>Planning Ressource_Used Monitoring</parents>
			<probabilities>0.5714285714285714 0.2857142857142857 0.1428571428571429 0.4285714285714285 0.4285714285714285 0.1428571428571429 0.3333333333333333 0.4444444444444444 0.2222222222222223 0.4285714285714285 0.4285714285714285 0.1428571428571429 0.25 0.5 0.25 0.2222222222222222 0.4444444444444444 0.3333333333333334 0.3333333333333333 0.4444444444444444 0.2222222222222223 0.2857142857142857 0.4285714285714285 0.2857142857142858 0.1428571428571428 0.4285714285714285 0.4285714285714286 0.4285714285714285 0.4285714285714285 0.1428571428571429 0.3333333333333333 0.4444444444444444 0.2222222222222223 0.2857142857142857 0.4285714285714285 0.2857142857142858 0.3333333333333333 0.4444444444444444 0.2222222222222223 0.25 0.5 0.25 0.1428571428571428 0.4285714285714285 0.4285714285714286 0.2857142857142857 0.4285714285714285 0.2857142857142858 0.1428571428571428 0.4285714285714285 0.4285714285714286 0.1666666666666667 0.3333333333333333 0.5 0.25 0.5 0.25 0.2857142857142857 0.4285714285714285 0.2857142857142858 0.1428571428571428 0.4285714285714285 0.4285714285714286 0.2857142857142857 0.4285714285714285 0.2857142857142858 0.1428571428571428 0.4285714285714285 0.4285714285714286 0.1666666666666667 0.3333333333333333 0.5 0.1428571428571428 0.4285714285714285 0.4285714285714286 0.1666666666666667 0.3333333333333333 0.5 0.1428571428571428 0.2857142857142857 0.5714285714285714</probabilities>
		</cpt>
	</nodes>
	<extensions>
		<genie version="1.0" app="GeNIe 3.0.6128.0 ACADEMIC" name="BN_2_Reversed">
			<node id="validation_quality">
				<name>validation_quality</name>
				<interior color="e5f6f7" />
				<outline color="000080" />
				<font color="000000" name="Arial" size="8" />
				<position>1403 178 1500 238</position>
				<barchart active="true" width="128" height="108" />
			</node>
			<node id="experimentation_quality">
				<name>experimentation_quality</name>
				<interior color="e5f6f7" />
				<outline color="000080" />
				<font color="000000" name="Arial" size="8" />
				<position>1390 39 1512 115</position>
				<barchart active="true" width="128" height="108" />
			</node>
			<node id="validated_time_rate">
				<name>validated_time_rate</name>
				<interior color="e5f6f7" />
				<outline color="000080" />
				<font color="000000" name="Arial" size="8" />
				<position>82 30 226 94</position>
				<barchart active="true" width="128" height="108" />
			</node>
			<node id="highest_version_mean_validated">
				<name>highest_version_mean_validated</name>
				<interior color="e5f6f7" />
				<outline color="000080" />
				<font color="000000" name="Arial" size="8" />
				<position>70 117 237 221</position>
				<barchart active="true" width="128" height="90" />
			</node>
			<node id="time_consulting_help">
				<name>time_consulting_help</name>
				<interior color="e5f6f7" />
				<outline color="000080" />
				<font color="000000" name="Arial" size="8" />
				<position>98 241 208 309</position>
				<barchart active="true" width="128" height="108" />
			</node>
			<node id="mean_test_per_subject">
				<name>mean_test_per_subject</name>
				<interior color="e5f6f7" />
				<outline color="000080" />
				<font color="000000" name="Arial" size="8" />
				<position>92 370 214 446</position>
				<barchart active="true" width="128" height="105" />
			</node>
			<node id="mean_modification_per_subject">
				<name>mean_modification_per_subject</name>
				<interior color="e5f6f7" />
				<outline color="000080" />
				<font color="000000" name="Arial" size="8" />
				<position>69 486 230 586</position>
				<barchart active="true" width="128" height="96" />
			</node>
			<node id="mean_time_active">
				<name>mean_time_active</name>
				<interior color="e5f6f7" />
				<outline color="000080" />
				<font color="000000" name="Arial" size="8" />
				<position>101 633 198 693</position>
				<barchart active="true" width="128" height="126" />
			</node>
			<node id="Planning">
				<name>Planning</name>
				<interior color="e5f6f7" />
				<outline color="000080" />
				<font color="000000" name="Arial" size="8" />
				<position>661 260 717 295</position>
				<barchart active="true" width="128" height="79" />
			</node>
			<node id="Ressource_Used">
				<name>Ressource Used</name>
				<interior color="e5f6f7" />
				<outline color="000080" />
				<font color="000000" name="Arial" size="8" />
				<position>646 465 737 521</position>
				<barchart active="true" width="128" height="80" />
			</node>
			<node id="Monitoring">
				<name>Monitoring</name>
				<interior color="e5f6f7" />
				<outline color="000080" />
				<font color="000000" name="Arial" size="8" />
				<position>973 111 1035 149</position>
				<barchart active="true" width="128" height="86" />
			</node>
			<node id="SRL_Class">
				<name>SRL Class</name>
				<interior color="e5f6f7" />
				<outline color="000080" />
				<font color="000000" name="Arial" size="8" />
				<position>971 387 1035 427</position>
				<barchart active="true" width="128" height="72" />
			</node>
		</genie>
	</extensions>
</smile>
