<?xml version="1.0" encoding="UTF-8"?>
<!-- This network was created in GeNIe Academic, which can be used for academic teaching and research purposes only -->
<smile version="1.0" id="Network1" numsamples="10000" discsamples="10000">
	<nodes>
		<cpt id="Monitoring">
			<state id="Classe1" />
			<state id="Classe2" />
			<state id="Classe3" />
			<probabilities>0.3333333333333333 0.3333333333333333 0.3333333333333334</probabilities>
		</cpt>
		<cpt id="validation_quality">
			<state id="Classe1" />
			<state id="Classe2" />
			<state id="Classe3" />
			<state id="Classe4" />
			<state id="Classe5" />
			<parents>Monitoring</parents>
			<probabilities>0.3333333333333333 0.2222222222222222 0.2222222222222222 0.1111111111111111 0.1111111111111112 0.1111111111111111 0.2222222222222222 0.3333333333333333 0.2222222222222222 0.1111111111111112 0.1111111111111111 0.1111111111111111 0.2222222222222222 0.3333333333333333 0.2222222222222223</probabilities>
		</cpt>
		<cpt id="experimentation_quality">
			<state id="Classe1" />
			<state id="Classe2" />
			<state id="Classe3" />
			<state id="Classe4" />
			<state id="Classe5" />
			<parents>Monitoring</parents>
			<probabilities>0.3333333333333333 0.2222222222222222 0.2222222222222222 0.1111111111111111 0.1111111111111112 0.1111111111111111 0.2222222222222222 0.3333333333333333 0.2222222222222222 0.1111111111111112 0.1111111111111111 0.1111111111111111 0.2222222222222222 0.3333333333333333 0.2222222222222223</probabilities>
		</cpt>
		<cpt id="Planning">
			<state id="Classe1" />
			<state id="Classe2" />
			<state id="Classe3" />
			<probabilities>0.3333333333333333 0.3333333333333333 0.3333333333333334</probabilities>
		</cpt>
		<cpt id="validated_time_rate">
			<state id="Classe1" />
			<state id="Classe2" />
			<state id="Classe3" />
			<state id="Classe4" />
			<state id="Classe5" />
			<parents>Monitoring Planning</parents>
			<probabilities>0.3333333333333333 0.2222222222222222 0.2222222222222222 0.1111111111111111 0.1111111111111112 0.2222222222222222 0.3333333333333333 0.2222222222222222 0.1111111111111111 0.1111111111111112 0.125 0.25 0.25 0.25 0.125 0.2222222222222222 0.3333333333333333 0.2222222222222222 0.1111111111111111 0.1111111111111112 0.1818181818181818 0.2727272727272727 0.2727272727272727 0.1818181818181818 0.09090909090909083 0.1111111111111111 0.2222222222222222 0.3333333333333333 0.2222222222222222 0.1111111111111112 0.125 0.25 0.25 0.25 0.125 0.1111111111111111 0.2222222222222222 0.3333333333333333 0.2222222222222222 0.1111111111111112 0.09090909090909091 0.1818181818181818 0.2727272727272727 0.2727272727272727 0.1818181818181819</probabilities>
		</cpt>
		<cpt id="highest_version_mean_validated">
			<state id="Classe1" />
			<state id="Classe2" />
			<state id="Classe3" />
			<state id="Classe4" />
			<parents>Monitoring Planning</parents>
			<probabilities>0.4285714285714285 0.2857142857142857 0.1428571428571428 0.142857142857143 0.375 0.25 0.25 0.125 0.1666666666666667 0.3333333333333333 0.3333333333333333 0.1666666666666667 0.25 0.375 0.25 0.125 0.125 0.375 0.375 0.125 0.125 0.25 0.375 0.25 0.1666666666666667 0.3333333333333333 0.3333333333333333 0.1666666666666667 0.125 0.25 0.375 0.25 0.1428571428571428 0.1428571428571428 0.2857142857142857 0.4285714285714286</probabilities>
		</cpt>
		<cpt id="Ressource_Used">
			<state id="Classe1" />
			<state id="Classe2" />
			<state id="Classe3" />
			<probabilities>0.3333333333333333 0.3333333333333333 0.3333333333333334</probabilities>
		</cpt>
		<cpt id="time_consulting_help">
			<state id="Classe1" />
			<state id="Classe2" />
			<state id="Classe3" />
			<state id="Classe4" />
			<state id="Classe5" />
			<parents>Planning Ressource_Used</parents>
			<probabilities>0.2 0.2 0.2 0.2 0.2 0.2 0.2 0.2 0.2 0.2 0.2 0.2 0.2 0.2 0.2 0.2 0.2 0.2 0.2 0.2 0.2 0.2 0.2 0.2 0.2 0.2 0.2 0.2 0.2 0.2 0.2 0.2 0.2 0.2 0.2 0.2 0.2 0.2 0.2 0.2 0.2 0.2 0.2 0.2 0.2</probabilities>
		</cpt>
		<cpt id="mean_test_per_subject">
			<state id="Classe1" />
			<state id="Classe2" />
			<state id="Classe3" />
			<state id="Classe4" />
			<state id="Classe5" />
			<state id="Classe6" />
			<parents>Ressource_Used</parents>
			<probabilities>0.1666666666666667 0.1666666666666667 0.1666666666666667 0.1666666666666667 0.1666666666666667 0.1666666666666667 0.1666666666666667 0.1666666666666667 0.1666666666666667 0.1666666666666667 0.1666666666666667 0.1666666666666667 0.1666666666666667 0.1666666666666667 0.1666666666666667 0.1666666666666667 0.1666666666666667 0.1666666666666667</probabilities>
		</cpt>
		<cpt id="mean_modification_per_subject">
			<state id="Classe1" />
			<state id="Classe2" />
			<state id="Classe3" />
			<state id="Classe4" />
			<state id="Classe5" />
			<parents>Ressource_Used</parents>
			<probabilities>0.2727272727272727 0.09090909090909091 0.1818181818181818 0.1818181818181818 0.2727272727272727 0.1 0.3 0.2 0.3 0.09999999999999987 0.1111111111111111 0.2222222222222222 0.3333333333333333 0.2222222222222222 0.1111111111111112</probabilities>
		</cpt>
		<cpt id="mean_time_active">
			<state id="Classe1" />
			<state id="Classe2" />
			<state id="Classe3" />
			<state id="Classe4" />
			<state id="Classe5" />
			<state id="Classe6" />
			<parents>Ressource_Used</parents>
			<probabilities>0.1666666666666667 0.1666666666666667 0.1666666666666667 0.1666666666666667 0.1666666666666667 0.1666666666666667 0.1666666666666667 0.1666666666666667 0.1666666666666667 0.1666666666666667 0.1666666666666667 0.1666666666666667 0.1666666666666667 0.1666666666666667 0.1666666666666667 0.1666666666666667 0.1666666666666667 0.1666666666666667</probabilities>
		</cpt>
		<cpt id="SRL_Class">
			<state id="Low" />
			<state id="High" />
			<parents>Planning Ressource_Used Monitoring</parents>
			<probabilities>0.7999999999999999 0.2000000000000001 0.7499999999999999 0.2500000000000001 0.6 0.4 0.7499999999999999 0.2500000000000001 0.5 0.5 0.4 0.6000000000000001 0.6 0.4 0.4999999999999999 0.5000000000000001 0.2499999999999999 0.7500000000000001 0.7499999999999999 0.2500000000000001 0.6 0.4 0.4999999999999999 0.5000000000000001 0.6 0.4 0.5 0.5 0.2499999999999999 0.7500000000000001 0.4999999999999999 0.5000000000000001 0.2499999999999999 0.7500000000000001 0.2500000000000001 0.75 0.5 0.5 0.4999999999999999 0.5000000000000001 0.2499999999999999 0.7500000000000001 0.4999999999999999 0.5000000000000001 0.2499999999999999 0.7500000000000001 0.2500000000000001 0.75 0.2499999999999999 0.7500000000000001 0.2500000000000001 0.75 0.1999999999999999 0.8</probabilities>
		</cpt>
		<cpt id="mean_size_modification_per_test">
			<state id="Classe1" />
			<state id="Classe2" />
			<state id="Classe3" />
			<state id="Classe4" />
			<state id="Classe5" />
			<parents>Ressource_Used</parents>
			<probabilities>0.2 0.2 0.2 0.2 0.2 0.2 0.2 0.2 0.2 0.2 0.2 0.2 0.2 0.2 0.2</probabilities>
		</cpt>
		<cpt id="Monitoring_1">
			<state id="Classe1" />
			<state id="Classe2" />
			<state id="Classe3" />
			<parents>Monitoring</parents>
			<probabilities>0.3333333333333333 0.3333333333333333 0.3333333333333334 0.3333333333333333 0.3333333333333333 0.3333333333333334 0.3333333333333333 0.3333333333333333 0.3333333333333334</probabilities>
		</cpt>
		<cpt id="validation_quality_1">
			<state id="Classe1" />
			<state id="Classe2" />
			<state id="Classe3" />
			<state id="Classe4" />
			<state id="Classe5" />
			<parents>Monitoring_1</parents>
			<probabilities>0.3333333333333333 0.2222222222222222 0.2222222222222222 0.1111111111111111 0.1111111111111112 0.1111111111111111 0.2222222222222222 0.3333333333333333 0.2222222222222222 0.1111111111111112 0.1111111111111111 0.1111111111111111 0.2222222222222222 0.3333333333333333 0.2222222222222223</probabilities>
		</cpt>
		<cpt id="experimentation_quality_1">
			<state id="Classe1" />
			<state id="Classe2" />
			<state id="Classe3" />
			<state id="Classe4" />
			<state id="Classe5" />
			<parents>Monitoring_1</parents>
			<probabilities>0.3333333333333333 0.2222222222222222 0.2222222222222222 0.1111111111111111 0.1111111111111112 0.1111111111111111 0.2222222222222222 0.3333333333333333 0.2222222222222222 0.1111111111111112 0.1111111111111111 0.1111111111111111 0.2222222222222222 0.3333333333333333 0.2222222222222223</probabilities>
		</cpt>
		<cpt id="Planning_1">
			<state id="Classe1" />
			<state id="Classe2" />
			<state id="Classe3" />
			<parents>Monitoring</parents>
			<probabilities>0.3333333333333333 0.3333333333333333 0.3333333333333334 0.3333333333333333 0.3333333333333333 0.3333333333333334 0.3333333333333333 0.3333333333333333 0.3333333333333334</probabilities>
		</cpt>
		<cpt id="validated_time_rate_1">
			<state id="Classe1" />
			<state id="Classe2" />
			<state id="Classe3" />
			<state id="Classe4" />
			<state id="Classe5" />
			<parents>Monitoring_1 Planning_1</parents>
			<probabilities>0.3333333333333333 0.2222222222222222 0.2222222222222222 0.1111111111111111 0.1111111111111112 0.2222222222222222 0.3333333333333333 0.2222222222222222 0.1111111111111111 0.1111111111111112 0.125 0.25 0.25 0.25 0.125 0.2222222222222222 0.3333333333333333 0.2222222222222222 0.1111111111111111 0.1111111111111112 0.1818181818181818 0.2727272727272727 0.2727272727272727 0.1818181818181818 0.09090909090909083 0.1111111111111111 0.2222222222222222 0.3333333333333333 0.2222222222222222 0.1111111111111112 0.125 0.25 0.25 0.25 0.125 0.1111111111111111 0.2222222222222222 0.3333333333333333 0.2222222222222222 0.1111111111111112 0.09090909090909091 0.1818181818181818 0.2727272727272727 0.2727272727272727 0.1818181818181819</probabilities>
		</cpt>
		<cpt id="highest_version_mean_validated_1">
			<state id="Classe1" />
			<state id="Classe2" />
			<state id="Classe3" />
			<state id="Classe4" />
			<parents>Monitoring_1 Planning_1</parents>
			<probabilities>0.4285714285714285 0.2857142857142857 0.1428571428571428 0.142857142857143 0.375 0.25 0.25 0.125 0.1666666666666667 0.3333333333333333 0.3333333333333333 0.1666666666666667 0.25 0.375 0.25 0.125 0.125 0.375 0.375 0.125 0.125 0.25 0.375 0.25 0.1666666666666667 0.3333333333333333 0.3333333333333333 0.1666666666666667 0.125 0.25 0.375 0.25 0.1428571428571428 0.1428571428571428 0.2857142857142857 0.4285714285714286</probabilities>
		</cpt>
		<cpt id="Ressource_Used_1">
			<state id="Classe1" />
			<state id="Classe2" />
			<state id="Classe3" />
			<parents>Monitoring</parents>
			<probabilities>0.3333333333333333 0.3333333333333333 0.3333333333333334 0.3333333333333333 0.3333333333333333 0.3333333333333334 0.3333333333333333 0.3333333333333333 0.3333333333333334</probabilities>
		</cpt>
		<cpt id="time_consulting_help_1">
			<state id="Classe1" />
			<state id="Classe2" />
			<state id="Classe3" />
			<state id="Classe4" />
			<state id="Classe5" />
			<parents>Planning_1 Ressource_Used_1</parents>
			<probabilities>0.2 0.2 0.2 0.2 0.2 0.2 0.2 0.2 0.2 0.2 0.2 0.2 0.2 0.2 0.2 0.2 0.2 0.2 0.2 0.2 0.2 0.2 0.2 0.2 0.2 0.2 0.2 0.2 0.2 0.2 0.2 0.2 0.2 0.2 0.2 0.2 0.2 0.2 0.2 0.2 0.2 0.2 0.2 0.2 0.2</probabilities>
		</cpt>
		<cpt id="mean_test_per_subject_1">
			<state id="Classe1" />
			<state id="Classe2" />
			<state id="Classe3" />
			<state id="Classe4" />
			<state id="Classe5" />
			<state id="Classe6" />
			<parents>Ressource_Used_1</parents>
			<probabilities>0.1666666666666667 0.1666666666666667 0.1666666666666667 0.1666666666666667 0.1666666666666667 0.1666666666666667 0.1666666666666667 0.1666666666666667 0.1666666666666667 0.1666666666666667 0.1666666666666667 0.1666666666666667 0.1666666666666667 0.1666666666666667 0.1666666666666667 0.1666666666666667 0.1666666666666667 0.1666666666666667</probabilities>
		</cpt>
		<cpt id="mean_modification_per_subject_1">
			<state id="Classe1" />
			<state id="Classe2" />
			<state id="Classe3" />
			<state id="Classe4" />
			<state id="Classe5" />
			<parents>Ressource_Used_1</parents>
			<probabilities>0.2727272727272727 0.09090909090909091 0.1818181818181818 0.1818181818181818 0.2727272727272727 0.1 0.3 0.2 0.3 0.09999999999999987 0.1111111111111111 0.2222222222222222 0.3333333333333333 0.2222222222222222 0.1111111111111112</probabilities>
		</cpt>
		<cpt id="mean_time_active_1">
			<state id="Classe1" />
			<state id="Classe2" />
			<state id="Classe3" />
			<state id="Classe4" />
			<state id="Classe5" />
			<state id="Classe6" />
			<parents>Ressource_Used_1</parents>
			<probabilities>0.1666666666666667 0.1666666666666667 0.1666666666666667 0.1666666666666667 0.1666666666666667 0.1666666666666667 0.1666666666666667 0.1666666666666667 0.1666666666666667 0.1666666666666667 0.1666666666666667 0.1666666666666667 0.1666666666666667 0.1666666666666667 0.1666666666666667 0.1666666666666667 0.1666666666666667 0.1666666666666667</probabilities>
		</cpt>
		<cpt id="SRL_Class_1">
			<state id="Low" />
			<state id="High" />
			<parents>Planning_1 Ressource_Used_1 Monitoring_1</parents>
			<probabilities>0.7999999999999999 0.2000000000000001 0.7499999999999999 0.2500000000000001 0.6 0.4 0.7499999999999999 0.2500000000000001 0.5 0.5 0.4 0.6000000000000001 0.6 0.4 0.4999999999999999 0.5000000000000001 0.2499999999999999 0.7500000000000001 0.7499999999999999 0.2500000000000001 0.6 0.4 0.4999999999999999 0.5000000000000001 0.6 0.4 0.5 0.5 0.2499999999999999 0.7500000000000001 0.4999999999999999 0.5000000000000001 0.2499999999999999 0.7500000000000001 0.2500000000000001 0.75 0.5 0.5 0.4999999999999999 0.5000000000000001 0.2499999999999999 0.7500000000000001 0.4999999999999999 0.5000000000000001 0.2499999999999999 0.7500000000000001 0.2500000000000001 0.75 0.2499999999999999 0.7500000000000001 0.2500000000000001 0.75 0.1999999999999999 0.8</probabilities>
		</cpt>
		<cpt id="mean_size_modification_per_test_1">
			<state id="Classe1" />
			<state id="Classe2" />
			<state id="Classe3" />
			<state id="Classe4" />
			<state id="Classe5" />
			<parents>Ressource_Used_1</parents>
			<probabilities>0.2 0.2 0.2 0.2 0.2 0.2 0.2 0.2 0.2 0.2 0.2 0.2 0.2 0.2 0.2</probabilities>
		</cpt>
	</nodes>
	<extensions>
		<genie version="1.0" app="GeNIe 3.0.6128.0 ACADEMIC" name="DBN_2_Reversed unrolled">
			<node id="Monitoring">
				<name>Monitoring</name>
				<interior color="e5f6f7" />
				<outline color="000080" />
				<font color="000000" name="Arial" size="8" />
				<position>1114 310 1242 418</position>
				<barchart active="true" width="128" height="72" />
			</node>
			<node id="validation_quality">
				<name>validation_quality</name>
				<interior color="e5f6f7" />
				<outline color="000080" />
				<font color="000000" name="Arial" size="8" />
				<position>804 117 932 285</position>
				<barchart active="true" width="128" height="108" />
			</node>
			<node id="experimentation_quality">
				<name>experimentation_quality</name>
				<interior color="e5f6f7" />
				<outline color="000080" />
				<font color="000000" name="Arial" size="8" />
				<position>1026 117 1154 285</position>
				<barchart active="true" width="128" height="108" />
			</node>
			<node id="Planning">
				<name>Planning</name>
				<interior color="e5f6f7" />
				<outline color="000080" />
				<font color="000000" name="Arial" size="8" />
				<position>960 443 1088 551</position>
				<barchart active="true" width="128" height="72" />
			</node>
			<node id="validated_time_rate">
				<name>validated_time_rate</name>
				<interior color="e5f6f7" />
				<outline color="000080" />
				<font color="000000" name="Arial" size="8" />
				<position>281 117 409 285</position>
				<barchart active="true" width="128" height="108" />
			</node>
			<node id="highest_version_mean_validated">
				<name>highest_version_mean_validated</name>
				<interior color="e5f6f7" />
				<outline color="000080" />
				<font color="000000" name="Arial" size="8" />
				<position>281 284 409 422</position>
				<barchart active="true" width="128" height="90" />
			</node>
			<node id="Ressource_Used">
				<name>Ressource Used</name>
				<interior color="e5f6f7" />
				<outline color="000080" />
				<font color="000000" name="Arial" size="8" />
				<position>962 654 1090 762</position>
				<barchart active="true" width="128" height="72" />
			</node>
			<node id="time_consulting_help">
				<name>time_consulting_help</name>
				<interior color="e5f6f7" />
				<outline color="000080" />
				<font color="000000" name="Arial" size="8" />
				<position>281 421 409 589</position>
				<barchart active="true" width="128" height="108" />
			</node>
			<node id="mean_test_per_subject">
				<name>mean_test_per_subject</name>
				<interior color="e5f6f7" />
				<outline color="000080" />
				<font color="000000" name="Arial" size="8" />
				<position>281 589 409 787</position>
				<barchart active="true" width="128" height="126" />
			</node>
			<node id="mean_modification_per_subject">
				<name>mean_modification_per_subject</name>
				<interior color="e5f6f7" />
				<outline color="000080" />
				<font color="000000" name="Arial" size="8" />
				<position>792 831 920 999</position>
				<barchart active="true" width="128" height="108" />
			</node>
			<node id="mean_time_active">
				<name>mean_time_active</name>
				<interior color="e5f6f7" />
				<outline color="000080" />
				<font color="000000" name="Arial" size="8" />
				<position>563 799 691 997</position>
				<barchart active="true" width="128" height="126" />
			</node>
			<node id="SRL_Class">
				<name>SRL Class</name>
				<interior color="e5f6f7" />
				<outline color="000080" />
				<font color="000000" name="Arial" size="8" />
				<position>1172 680 1300 758</position>
				<barchart active="true" />
			</node>
			<node id="mean_size_modification_per_test">
				<name>mean_size_modification_per_test</name>
				<interior color="e5f6f7" />
				<outline color="000080" />
				<font color="000000" name="Arial" size="8" />
				<position>281 788 409 956</position>
				<barchart active="true" width="128" height="108" />
			</node>
			<textbox>
				<caption>Step0</caption>
				<font color="696969" name="Arial" size="7" />
				<position>863 1024 887 1036</position>
			</textbox>
			<textbox>
				<caption>Step1</caption>
				<font color="696969" name="Arial" size="7" />
				<position>2287 1024 2311 1036</position>
			</textbox>
			<node id="Monitoring_1">
				<name>Monitoring (t=1)</name>
				<interior color="e5f6f7" />
				<outline color="000080" />
				<font color="000000" name="Arial" size="8" />
				<position>2538 330 2666 438</position>
				<barchart active="true" width="128" height="72" />
			</node>
			<node id="validation_quality_1">
				<name>validation_quality (t=1)</name>
				<interior color="e5f6f7" />
				<outline color="000080" />
				<font color="000000" name="Arial" size="8" />
				<position>2228 137 2356 305</position>
				<barchart active="true" width="128" height="108" />
			</node>
			<node id="experimentation_quality_1">
				<name>experimentation_quality (t=1)</name>
				<interior color="e5f6f7" />
				<outline color="000080" />
				<font color="000000" name="Arial" size="8" />
				<position>2450 137 2578 305</position>
				<barchart active="true" width="128" height="108" />
			</node>
			<node id="Planning_1">
				<name>Planning (t=1)</name>
				<interior color="e5f6f7" />
				<outline color="000080" />
				<font color="000000" name="Arial" size="8" />
				<position>2384 463 2512 571</position>
				<barchart active="true" width="128" height="72" />
			</node>
			<node id="validated_time_rate_1">
				<name>validated_time_rate (t=1)</name>
				<interior color="e5f6f7" />
				<outline color="000080" />
				<font color="000000" name="Arial" size="8" />
				<position>1705 137 1833 305</position>
				<barchart active="true" width="128" height="108" />
			</node>
			<node id="highest_version_mean_validated_1">
				<name>highest_version_mean_validated (t=1)</name>
				<interior color="e5f6f7" />
				<outline color="000080" />
				<font color="000000" name="Arial" size="8" />
				<position>1705 304 1833 442</position>
				<barchart active="true" width="128" height="90" />
			</node>
			<node id="Ressource_Used_1">
				<name>Ressource Used (t=1)</name>
				<interior color="e5f6f7" />
				<outline color="000080" />
				<font color="000000" name="Arial" size="8" />
				<position>2386 674 2514 782</position>
				<barchart active="true" width="128" height="72" />
			</node>
			<node id="time_consulting_help_1">
				<name>time_consulting_help (t=1)</name>
				<interior color="e5f6f7" />
				<outline color="000080" />
				<font color="000000" name="Arial" size="8" />
				<position>1705 441 1833 609</position>
				<barchart active="true" width="128" height="108" />
			</node>
			<node id="mean_test_per_subject_1">
				<name>mean_test_per_subject (t=1)</name>
				<interior color="e5f6f7" />
				<outline color="000080" />
				<font color="000000" name="Arial" size="8" />
				<position>1705 609 1833 807</position>
				<barchart active="true" width="128" height="126" />
			</node>
			<node id="mean_modification_per_subject_1">
				<name>mean_modification_per_subject (t=1)</name>
				<interior color="e5f6f7" />
				<outline color="000080" />
				<font color="000000" name="Arial" size="8" />
				<position>2216 851 2344 1019</position>
				<barchart active="true" width="128" height="108" />
			</node>
			<node id="mean_time_active_1">
				<name>mean_time_active (t=1)</name>
				<interior color="e5f6f7" />
				<outline color="000080" />
				<font color="000000" name="Arial" size="8" />
				<position>1987 819 2115 1017</position>
				<barchart active="true" width="128" height="126" />
			</node>
			<node id="SRL_Class_1">
				<name>SRL Class (t=1)</name>
				<interior color="e5f6f7" />
				<outline color="000080" />
				<font color="000000" name="Arial" size="8" />
				<position>2596 700 2724 778</position>
				<barchart active="true" />
			</node>
			<node id="mean_size_modification_per_test_1">
				<name>mean_size_modification_per_test (t=1)</name>
				<interior color="e5f6f7" />
				<outline color="000080" />
				<font color="000000" name="Arial" size="8" />
				<position>1705 808 1833 976</position>
				<barchart active="true" width="128" height="108" />
			</node>
		</genie>
	</extensions>
</smile>
